FANN_FLO_2.1
num_layers=3
learning_rate=0.700000
connection_rate=1.000000
network_type=0
learning_momentum=0.000000
training_algorithm=2
train_error_function=1
train_stop_function=0
cascade_output_change_fraction=0.010000
quickprop_decay=-0.000100
quickprop_mu=1.750000
rprop_increase_factor=1.200000
rprop_decrease_factor=0.500000
rprop_delta_min=0.000000
rprop_delta_max=50.000000
rprop_delta_zero=0.100000
cascade_output_stagnation_epochs=12
cascade_candidate_change_fraction=0.010000
cascade_candidate_stagnation_epochs=12
cascade_max_out_epochs=150
cascade_min_out_epochs=50
cascade_max_cand_epochs=150
cascade_min_cand_epochs=50
cascade_num_candidate_groups=2
bit_fail_limit=3.49999999999999977796e-01
cascade_candidate_limit=1.00000000000000000000e+03
cascade_weight_multiplier=4.00000000000000022204e-01
cascade_activation_functions_count=10
cascade_activation_functions=3 5 7 8 10 11 14 15 16 17 
cascade_activation_steepnesses_count=4
cascade_activation_steepnesses=2.50000000000000000000e-01 5.00000000000000000000e-01 7.50000000000000000000e-01 1.00000000000000000000e+00 
layer_sizes=4 7 2 
scale_included=0
neurons (num_inputs, activation_function, activation_steepness)=(0, 0, 0.00000000000000000000e+00) (0, 0, 0.00000000000000000000e+00) (0, 0, 0.00000000000000000000e+00) (0, 0, 0.00000000000000000000e+00) (4, 4, 5.00000000000000000000e-01) (4, 4, 5.00000000000000000000e-01) (4, 4, 5.00000000000000000000e-01) (4, 4, 5.00000000000000000000e-01) (4, 4, 5.00000000000000000000e-01) (4, 4, 5.00000000000000000000e-01) (0, 0, 0.00000000000000000000e+00) (7, 4, 5.00000000000000000000e-01) (0, 0, 0.00000000000000000000e+00) 
connections (connected_to_neuron, weight)=(0, -1.50000000000000000000e+03) (1, -4.85981626240345349288e+02) (2, -8.89732885708628913335e+01) (3, -9.80320272962552685669e+00) (0, -1.50000000000000000000e+03) (1, -4.86091565521242728209e+02) (2, -8.89347207894145270757e+01) (3, -9.78575137562562069604e+00) (0, -3.39414612986678521089e-01) (1, 1.43254464541904491526e+00) (2, 3.77493624120685600243e-01) (3, -7.07608619259972315696e-02) (0, -1.50000000000000000000e+03) (1, -2.36569480224883506025e+02) (2, -8.89595979576526900701e+01) (3, -2.30169404400072359351e+01) (0, -3.89479389310656898271e-01) (1, 1.63904474396097876721e+00) (2, 4.99228772951810784164e-01) (3, -2.76829156368784447262e-02) (0, -3.37891719313689664617e-01) (1, 1.53373090727984151549e+00) (2, 2.99288278401083296387e-01) (3, -1.02155626165899515723e-01) (4, 1.50000000000000000000e+03) (5, 1.50000000000000000000e+03) (6, 1.54466700763251640893e+00) (7, 1.50000000000000000000e+03) (8, 1.73743253554208045841e+01) (9, 1.14442173914259299750e+01) (10, -9.51602723832232122447e+00) 
