FANN_FLO_2.1
num_layers=3
learning_rate=0.700000
connection_rate=1.000000
network_type=0
learning_momentum=0.000000
training_algorithm=2
train_error_function=1
train_stop_function=0
cascade_output_change_fraction=0.010000
quickprop_decay=-0.000100
quickprop_mu=1.750000
rprop_increase_factor=1.200000
rprop_decrease_factor=0.500000
rprop_delta_min=0.000000
rprop_delta_max=50.000000
rprop_delta_zero=0.100000
cascade_output_stagnation_epochs=12
cascade_candidate_change_fraction=0.010000
cascade_candidate_stagnation_epochs=12
cascade_max_out_epochs=150
cascade_min_out_epochs=50
cascade_max_cand_epochs=150
cascade_min_cand_epochs=50
cascade_num_candidate_groups=2
bit_fail_limit=3.49999999999999977796e-01
cascade_candidate_limit=1.00000000000000000000e+03
cascade_weight_multiplier=4.00000000000000022204e-01
cascade_activation_functions_count=10
cascade_activation_functions=3 5 7 8 10 11 14 15 16 17 
cascade_activation_steepnesses_count=4
cascade_activation_steepnesses=2.50000000000000000000e-01 5.00000000000000000000e-01 7.50000000000000000000e-01 1.00000000000000000000e+00 
layer_sizes=4 7 2 
scale_included=0
neurons (num_inputs, activation_function, activation_steepness)=(0, 0, 0.00000000000000000000e+00) (0, 0, 0.00000000000000000000e+00) (0, 0, 0.00000000000000000000e+00) (0, 0, 0.00000000000000000000e+00) (4, 4, 5.00000000000000000000e-01) (4, 4, 5.00000000000000000000e-01) (4, 4, 5.00000000000000000000e-01) (4, 4, 5.00000000000000000000e-01) (4, 4, 5.00000000000000000000e-01) (4, 4, 5.00000000000000000000e-01) (0, 0, 0.00000000000000000000e+00) (7, 4, 5.00000000000000000000e-01) (0, 0, 0.00000000000000000000e+00) 
connections (connected_to_neuron, weight)=(0, 6.78618745761681796402e-01) (1, -2.95391777782725428736e+00) (2, -1.14096901429375607862e+00) (3, -8.85823492170237924981e-02) (0, -2.47970285648853761007e-01) (1, 1.41550022914435791321e+00) (2, 8.37569338679922809066e-02) (3, -1.43479315242352967186e-01) (0, 8.87986841315042269018e-02) (1, -8.04989611547249461765e-01) (2, -1.17899897367286166094e+00) (3, -1.30528600728294849609e-02) (0, -1.06917836851066955228e-01) (1, 7.83932054984677773035e-01) (2, 2.82986379745490013171e-01) (3, 2.38161155312342193158e-01) (0, -2.52107451493294221212e-01) (1, 1.42355613961245941468e+00) (2, 1.13532184571088670677e-01) (3, -1.90187265774789449058e-01) (0, -2.42374162237510348827e-01) (1, -2.64016706489562380522e-01) (2, 5.28430891911883415801e-01) (3, 1.99032136192718915879e+01) (4, 1.73208382024641629471e+01) (5, -7.76415222574890506735e+00) (6, -1.45615836613219080675e+01) (7, -3.62337158434965667109e-01) (8, -9.96695508651854567006e+00) (9, -5.01705964560979156275e-01) (10, 5.09560733876713300994e-02) 
